{"MLP/~/linear_0": {"b": [0.09055780619382858, 0.2695181965827942, -5.877848148345947, 0.16373373568058014, -0.7789732217788696, -6.194643974304199, 0.27786460518836975, 0.1720803678035736, -2.9032866954803467, 0.09909560531377792, -0.5534861087799072, 0.10539215058088303, 0.4463709890842438, -0.8986716270446777, -5.194901943206787, -4.363913059234619, -1.095755934715271, 0.32818156480789185, -0.6930180788040161, 0.3105974495410919, 0.5014424324035645, -5.173649311065674, 0.9344903230667114, -0.090294249355793, 0.2929236888885498, 0.24895276129245758, 0.36380866169929504, 0.23576512932777405, 0.7165241837501526, 0.34926632046699524, 0.5114193558692932, 1.342424750328064], "w": [[-0.23336564004421234, -0.7188220620155334, 1.2104209661483765, -1.0552321672439575, 2.3733139038085938, 2.3843557834625244, -1.4719476699829102, -2.306983709335327, 0.8807927370071411, -0.23414510488510132, 1.9335401058197021, -0.8597100973129272, 1.5782825946807861, 1.1504731178283691, 1.4970940351486206, 1.6149038076400757, 0.41883090138435364, 1.1584951877593994, -0.04245298355817795, -2.662545680999756, 1.307844877243042, 2.739793539047241, -1.0323272943496704, 2.423901319503784, -2.170423746109009, -0.8774183988571167, -1.9197732210159302, 1.1915371417999268, -0.40782874822616577, 0.2352829873561859, -2.4327926635742188, 0.15041346848011017]]}, "MLP/~/linear_1": {"b": [-0.07036995142698288, -1.324513554573059, 0.05556631460785866, -0.1799086034297943, -0.03369397297501564, -1.0032826662063599, -0.20784099400043488, -2.1111576557159424, -0.022895947098731995, -0.36649614572525024, -0.06907039135694504, 1.2116107940673828, -0.03820589557290077, 0.03148307278752327, -0.12671467661857605, -2.3219313621520996, -0.0003775052900891751, -3.998600959777832, -1.016526699066162, -2.3958580493927, -1.9856224060058594, -0.18071754276752472, -0.05251504108309746, -3.0724329948425293, -1.2071648836135864, -0.07799625396728516, -0.14725683629512787, -0.059047095477581024, 0.0735379010438919, 0.19312967360019684, -0.14696940779685974, 8.14676022855565e-05], "w": [[-0.11840315908193588, -0.28259041905403137, 0.06422574818134308, 0.2217998504638672, -0.00323857250623405, 0.19678513705730438, 0.32796186208724976, 0.8319969773292542, -0.06688138842582703, -0.1603470742702484, -0.07271485030651093, 0.11748115718364716, -0.2965286076068878, -0.17712965607643127, -0.15481768548488617, 1.8592928647994995, 0.14817771315574646, -0.6776127815246582, -0.488441526889801, 0.8430521488189697, 0.47878119349479675, 0.1333300918340683, 0.14002616703510284, -0.6304534673690796, 0.47128698229789734, -0.16872002184391022, -2.1605591773986816, 0.34210121631622314, 0.23743471503257751, -0.23256419599056244, -0.08961649984121323, 0.18210487067699432], [0.17190925776958466, -0.3386784493923187, 0.07707405835390091, 0.11411146819591522, -0.2578147053718567, -0.3904413878917694, -0.4869343638420105, -0.85625821352005, -0.10872539132833481, -0.0866030752658844, -0.030701931565999985, 0.3820023238658905, 0.4908912777900696, -0.15109296143054962, 0.31854239106178284, 0.9779044389724731, 0.2262711226940155, 0.5895500183105469, -0.8284835815429688, -0.20847448706626892, -0.2612626850605011, 0.11693357676267624, 0.1026875302195549, -0.782337486743927, -0.5481936931610107, -0.47445234656333923, -2.203500747680664, 0.3674715757369995, -0.2752469480037689, 0.3701137900352478, 0.06487570703029633, 0.1731293946504593], [-0.7848492860794067, 2.7525482177734375, -1.125259280204773, 1.657784104347229, 1.7475330829620361, -1.808264970779419, 2.944974422454834, 2.814363718032837, 1.6912072896957397, 2.7339818477630615, -1.0712710618972778, 4.358910083770752, 1.2577136754989624, -1.3512417078018188, -0.8414515852928162, 2.601577043533325, 1.1120318174362183, -0.3196491599082947, -0.9097582101821899, 4.426517486572266, 0.8566874861717224, -0.20009413361549377, -0.5928173661231995, 1.6739540100097656, -1.2628064155578613, 0.8520631194114685, -1.5878164768218994, 0.34501561522483826, -1.7787322998046875, 7.458422660827637, 2.0549488067626953, 0.38051727414131165], [0.013391775079071522, -0.4449339807033539, 0.0781121775507927, 0.4897356331348419, -0.058537617325782776, -0.3082462251186371, -0.32447555661201477, -2.7676870822906494, -0.1868482083082199, 0.012084252201020718, 0.057410139590501785, 0.06040198355913162, 0.036906324326992035, -0.003144824178889394, -0.05523478984832764, -1.018398642539978, -0.17871712148189545, 0.16655880212783813, -0.5717520713806152, -0.1099429652094841, 0.17121252417564392, -0.28700533509254456, -0.010351068340241909, -0.8354793190956116, -0.5956733822822571, 0.12468577176332474, -2.3605525493621826, -0.40722399950027466, -0.08337682485580444, 0.18953323364257812, 0.4071677327156067, 0.15013021230697632], [0.17122331261634827, -0.37617766857147217, -0.3512190580368042, 0.18015141785144806, -0.438073992729187, -0.47223955392837524, -0.9488944411277771, -2.0309698581695557, 0.05087103694677353, -1.717575192451477, -0.5200073719024658, -1.7622880935668945, -0.6304528117179871, -0.5533784627914429, -0.22888383269309998, -1.5656253099441528, -1.2817773818969727, 1.8712923526763916, -1.0044176578521729, -1.2142086029052734, 0.6969468593597412, 0.006548143923282623, -0.45431575179100037, -0.6729727983474731, -0.95697021484375, -0.717100977897644, -2.040250301361084, -0.25203466415405273, 0.1318451166152954, -2.6044654846191406, -0.03518769517540932, -0.3743341565132141], [2.3894803524017334, -0.5125835537910461, 1.4732699394226074, 0.6959344744682312, 1.193997859954834, 4.070136547088623, -2.1414988040924072, -0.6752765774726868, 0.4698205888271332, -0.782917320728302, 1.797367811203003, 1.7836525440216064, -0.42801156640052795, -1.828783631324768, 1.9008923768997192, 2.559638738632202, -1.4805878400802612, -0.8303076028823853, 3.4785354137420654, -0.46861618757247925, -1.0255537033081055, 3.5606493949890137, 1.31343674659729, -2.7612030506134033, 4.797933101654053, 2.049525022506714, -2.637965202331543, -1.8197838068008423, 1.719641089439392, 4.410451889038086, 1.494145393371582, 1.8197765350341797], [-0.244882270693779, -0.2522646188735962, -0.1088261529803276, 0.3509344160556793, -0.24405084550380707, -0.11094271391630173, -0.35627076029777527, -3.138385772705078, -0.1265166848897934, -0.24187450110912323, 0.012664013542234898, -0.13454760611057281, 0.3296302855014801, 0.15716980397701263, 0.09857866913080215, -1.4410558938980103, 0.15309612452983856, 0.1439848244190216, -1.167202353477478, -0.5937584042549133, -0.5112871527671814, -0.24201051890850067, 0.376819908618927, -1.0833667516708374, -0.22150978446006775, 0.0065664080902934074, -1.7785890102386475, -0.4128607511520386, 0.11539183557033539, -0.2153559774160385, -0.03653625398874283, 0.5080053806304932], [0.21506460011005402, -0.2363680899143219, 0.17346161603927612, -0.2654011845588684, 0.14370261132717133, -0.4918951392173767, -0.19091542065143585, -4.808082580566406, -0.10031762719154358, -0.47217899560928345, -0.1306990385055542, 0.0013444374781101942, -0.4285004138946533, 0.3778931796550751, 0.45312291383743286, -1.3956927061080933, 0.03395560011267662, -0.3971886932849884, -1.03136146068573, -0.5960801839828491, -0.19844453036785126, -0.1245037391781807, 0.034887708723545074, -1.5228960514068604, -1.1558531522750854, 0.026758093386888504, -1.5521644353866577, 0.3446432948112488, 0.3511258065700531, -0.0010370700620114803, -0.47728848457336426, -0.12396448850631714], [-0.0708792433142662, 1.9488263130187988, -0.47613170742988586, 0.44448450207710266, 0.47567018866539, -0.5272307991981506, 1.7913668155670166, 1.266449213027954, 0.4246007800102234, 1.0006792545318604, -0.80564284324646, 1.463057041168213, 0.695405125617981, -0.1769959181547165, -0.14556914567947388, 0.3651321828365326, 0.2631013095378876, 3.8983640670776367, -1.1955673694610596, 2.7345588207244873, 2.679579734802246, -0.02244562655687332, -0.28180643916130066, 2.4479618072509766, -0.8500367999076843, 0.12999005615711212, -1.3238662481307983, -0.29513558745384216, -0.13236883282661438, 2.3113484382629395, 0.7255821228027344, 0.12525053322315216], [-0.09300725162029266, -0.3640798032283783, 0.17200663685798645, 0.18478234112262726, 0.18065769970417023, -0.3142443299293518, 0.01637844555079937, 0.5101441144943237, 0.040089353919029236, -0.1038588210940361, -0.34565773606300354, -0.22708724439144135, -0.3301202356815338, 0.03588250279426575, -0.35564684867858887, 1.5609889030456543, -0.09801911562681198, -0.6315460801124573, -0.14036825299263, 0.7378827929496765, -0.2901260256767273, -0.5885398387908936, 0.1359342485666275, -0.25016170740127563, -0.2608731985092163, -0.43891918659210205, -1.8752696514129639, -0.12235409021377563, -0.11703310906887054, -0.26963740587234497, 0.0917772725224495, 0.42072951793670654], [0.1502745896577835, -1.137080430984497, 0.424477756023407, -0.026923146098852158, -0.06474105268716812, -0.5701187252998352, -0.21745048463344574, -2.156189441680908, -0.1383604258298874, -0.446677565574646, -0.10998871922492981, -1.4247410297393799, -0.8433836102485657, -0.7432836890220642, -0.3177184462547302, -1.9001566171646118, -1.1880147457122803, 0.32571670413017273, -0.040943533182144165, -0.924732506275177, 0.0962299033999443, -0.10669217258691788, -0.4761989116668701, -1.0035940408706665, -0.216055765748024, -0.4394494295120239, -2.796868085861206, -0.34047943353652954, -0.008839528076350689, -2.289714813232422, -0.5916644930839539, 0.18174737691879272], [0.10978643596172333, -0.199949711561203, -0.12846003472805023, -0.013914420269429684, 0.004973932635039091, -0.5207093358039856, 0.06119566783308983, -1.042940378189087, 0.009212612174451351, 0.003925409633666277, -0.25718849897384644, 0.03936881572008133, 0.06626656651496887, 0.03427838906645775, -0.06239531934261322, 0.6930271983146667, 0.4171714782714844, 0.6137042045593262, -0.8358682990074158, -0.12619008123874664, 0.0804029107093811, -0.14208664000034332, -0.13270767033100128, -0.596049964427948, -0.07468479871749878, -0.11938057094812393, -2.1136295795440674, 0.014148853719234467, -0.04326016083359718, -0.01143350824713707, -0.14714041352272034, -0.2903580069541931], [0.46471351385116577, -0.23757649958133698, -0.1723298877477646, 0.6299936175346375, 0.2989853620529175, -0.5056373476982117, 0.28107357025146484, -1.1716619729995728, 0.059809766709804535, 0.6472214460372925, 0.0993269681930542, -1.3818483352661133, -0.6101649403572083, -0.769870400428772, -0.012492382898926735, -0.9532326459884644, -0.14767229557037354, -0.7836107611656189, -0.3495498299598694, -0.5364671349525452, -0.9072052240371704, 0.1142524853348732, 0.30987709760665894, -1.5083686113357544, -0.38604530692100525, 0.07301729172468185, -1.387489914894104, 0.323057621717453, -0.015252048149704933, -0.1651579737663269, -0.6183610558509827, 0.1055387631058693], [-0.12316178530454636, 0.536003589630127, -0.4657744765281677, 1.1470528841018677, 1.4185270071029663, 0.20960846543312073, 1.55637526512146, -0.050105948001146317, 0.8751562833786011, 0.45014816522598267, -0.7626307606697083, -1.1846129894256592, -0.14642053842544556, -0.1911628395318985, -0.4693402647972107, -0.9452295899391174, -1.0974657535552979, 2.832765817642212, -0.846829354763031, 1.408663272857666, 1.659567952156067, 0.6955745816230774, -0.327388197183609, 1.4081796407699585, -0.8338034152984619, -0.8142867088317871, -1.882214069366455, -0.5371659398078918, 0.1916186511516571, -1.2444404363632202, 0.7524511218070984, -0.2929759621620178], [0.2773263454437256, 2.349355936050415, -0.2193177491426468, -0.05643515661358833, 0.07836147397756577, -1.3597151041030884, 1.3405630588531494, 2.5683038234710693, 0.0042892456986010075, 1.1995075941085815, 0.26174643635749817, 4.476106643676758, 0.9967093467712402, -1.6354076862335205, -0.13165916502475739, 2.361191987991333, 1.2159429788589478, 0.40667420625686646, -0.5681564807891846, 3.012195110321045, 0.8686802387237549, -1.2062604427337646, 0.38214367628097534, 2.132453441619873, -1.4249619245529175, 0.20872583985328674, -1.4824644327163696, -0.14605997502803802, 0.10826294869184494, 3.2962846755981445, 0.6480510234832764, -0.05111731216311455], [0.08398955315351486, 2.279029130935669, -0.4194900393486023, 0.5070090293884277, 0.25100424885749817, -1.6000254154205322, 0.6872363686561584, 2.470709800720215, 0.6014134287834167, 0.17690017819404602, -0.3399861752986908, 4.194504737854004, 0.803165853023529, -0.583259642124176, -0.1573367565870285, 2.433101177215576, 0.3463056683540344, 0.6825564503669739, -1.0569608211517334, 2.9765663146972656, 1.4873321056365967, -0.9462835788726807, -0.11987348645925522, 2.2517335414886475, -2.3045356273651123, -0.20496445894241333, -1.7817723751068115, 0.1981598436832428, 0.36668044328689575, 1.6494191884994507, 0.6162992715835571, 0.07842171937227249], [0.22180293500423431, 1.2316898107528687, -0.19931048154830933, 0.1059257760643959, 0.2556770145893097, 0.4421604573726654, 0.4848976731300354, -0.4772340953350067, 0.38985320925712585, -0.008616886101663113, 0.004603555426001549, -1.0372898578643799, -0.3657171130180359, -0.09595906734466553, 0.002248011063784361, 0.8014218807220459, 0.16701920330524445, 3.2244977951049805, 0.012126878835260868, 3.040217876434326, 0.6725785136222839, 0.6259458065032959, 0.02601456083357334, 1.1140824556350708, 0.10120062530040741, -0.12329547107219696, 0.07352375984191895, 0.18069830536842346, -0.5974826812744141, 0.025919348001480103, 0.2512238621711731, 0.46109288930892944], [0.5201276540756226, -0.357096791267395, -0.03148626536130905, 0.4169710874557495, 0.6599450707435608, -1.0365008115768433, 0.14802943170070648, -1.2788100242614746, 0.2810060977935791, 0.638569176197052, 0.3923695385456085, -1.271437406539917, 0.014936202205717564, -0.21295097470283508, -0.1824869066476822, -1.7661412954330444, -0.4676463305950165, -0.40096765756607056, -0.049512214958667755, -1.3402795791625977, -0.7389447093009949, 0.09753166884183884, 0.09430917352437973, -1.8511260747909546, -0.08238222450017929, 0.2470891922712326, -2.434934139251709, 0.3875877559185028, -0.09602075815200806, -1.093471884727478, -0.12013484537601471, -0.0624505840241909], [-0.29860228300094604, 1.015480637550354, -0.004668401554226875, 0.4746755063533783, -0.31217190623283386, 0.5319089293479919, 0.2772638499736786, -0.5459960699081421, 0.37891873717308044, 0.5340012907981873, -0.23079626262187958, -0.40513497591018677, -0.3069009482860565, -0.150373637676239, 0.47092047333717346, 5.893481254577637, -0.14554467797279358, 4.2811689376831055, 1.2602068185806274, 3.180805206298828, 1.3628586530685425, 0.5818922519683838, 0.6272149682044983, 1.816584825515747, 1.5582256317138672, -0.1276642233133316, 0.9589826464653015, -0.23433241248130798, -0.3116636872291565, -0.0018173458520323038, 0.22556746006011963, 0.2720063328742981], [0.23107722401618958, -0.04189061373472214, -0.2412116378545761, 0.026792310178279877, 0.48848557472229004, -0.3661498427391052, 0.2505183219909668, -4.924624443054199, 0.5446900129318237, -0.03537741303443909, 0.12689387798309326, -0.21172569692134857, 0.2713335156440735, 0.35177186131477356, -0.11514033377170563, -1.6259765625, 0.4279771149158478, -0.18687379360198975, -0.8397731184959412, 0.15190242230892181, -0.31622859835624695, -0.024412726983428, 0.03606687858700752, -1.917432427406311, -1.0977221727371216, 0.16818146407604218, -1.902978539466858, 0.1993817538022995, 0.3968132436275482, 0.1099761500954628, -0.20301920175552368, 0.07895677536725998], [0.021860742941498756, -1.1561554670333862, 0.0522940419614315, 0.733756959438324, 0.1298631727695465, -0.8235467672348022, 0.11339615285396576, -0.6330830454826355, 0.09201617538928986, 0.8981304168701172, 0.2532256841659546, -0.14734221994876862, 0.1380923092365265, -0.45322665572166443, -0.24819965660572052, -1.8492140769958496, 0.0016095985192805529, -1.3475735187530518, -0.6248977780342102, -1.3728197813034058, -0.7369757294654846, -0.24654977023601532, 0.18232816457748413, -1.8787094354629517, -0.5462698340415955, -0.18548664450645447, -1.533319115638733, -0.10268141329288483, 0.5433483719825745, -0.11214025318622589, -0.10732702910900116, -0.049777038395404816], [1.1603623628616333, -0.9470240473747253, 0.8176572918891907, 1.2470176219940186, 2.665815830230713, 1.8585602045059204, -0.17613932490348816, -1.3368618488311768, 1.4280766248703003, -1.570326328277588, 0.7755653262138367, 2.3684327602386475, 0.4340907037258148, -1.4764652252197266, 1.1888924837112427, 1.8510327339172363, -0.3200410306453705, -1.3892521858215332, 0.8483993411064148, -0.15118633210659027, -2.075946092605591, 1.723416805267334, 1.1572043895721436, -2.1297082901000977, 1.691810965538025, 0.6920669674873352, -1.6629642248153687, -1.8198152780532837, 1.1128482818603516, 3.2541258335113525, 2.403252363204956, 1.0399280786514282], [0.24099606275558472, -0.4376017153263092, -0.07267545163631439, -0.18601065874099731, -0.4532550573348999, -0.136378675699234, 0.046271927654743195, -2.0481624603271484, -0.13976970314979553, -0.27160075306892395, -0.016031498089432716, 0.14085020124912262, -0.38798025250434875, -0.050541140139102936, -0.4357166886329651, -1.213186264038086, 0.16042481362819672, 0.9558873772621155, -1.0546605587005615, -0.35892176628112793, 0.20127035677433014, -0.2958729863166809, -0.5394397377967834, -0.8411288261413574, -1.2693538665771484, -0.23499907553195953, -2.316807270050049, -0.2715381979942322, -0.28588318824768066, 0.5459821820259094, 0.27424031496047974, -0.20026126503944397], [-0.3289047181606293, -2.04512095451355, 0.2878930866718292, -0.15351630747318268, -0.5659586787223816, -0.7979862689971924, -0.5166512131690979, -2.303457736968994, -0.4821118414402008, -0.9553283452987671, -0.08383595943450928, -0.6465006470680237, -1.0791699886322021, -2.2578256130218506, -0.25182247161865234, -2.4657466411590576, -2.940286159515381, -0.21982520818710327, 0.23372507095336914, -1.7224557399749756, -0.9690826535224915, -0.23235444724559784, -0.30671426653862, -1.0772004127502441, -0.27337685227394104, -0.24040086567401886, -2.974666118621826, -1.2012584209442139, -0.04375315085053444, -1.8177114725112915, -0.3520714342594147, -0.15190386772155762], [0.015132042579352856, -0.407851904630661, 0.08021292835474014, 0.14947715401649475, 0.26366671919822693, -0.318960577249527, 0.042715687304735184, -4.132192611694336, -0.048692140728235245, -0.013345452025532722, 0.08420664817094803, 0.04981759935617447, 0.12358374893665314, 0.2884630560874939, 0.3149569630622864, -1.8131204843521118, 0.3289412260055542, -0.34578585624694824, -0.8590579032897949, -0.9197258353233337, 0.2915591299533844, -0.18954414129257202, 0.47257956862449646, -1.386805772781372, -1.2891885042190552, -0.09776102751493454, -1.861358642578125, -0.05499427020549774, 0.028262531384825706, 0.2729434370994568, -0.1059301346540451, -0.5791124105453491], [0.2687106430530548, -0.3889417052268982, -0.05115901678800583, 0.26452627778053284, -0.31410858035087585, -0.4364933371543884, -0.19411170482635498, -1.9699885845184326, -0.07181032747030258, -0.3158206343650818, -0.2882803976535797, 0.25667908787727356, -0.131537064909935, -0.011589267291128635, 0.0218611229211092, 0.1506701111793518, -0.24099254608154297, 0.30343231558799744, -1.1529505252838135, -0.027946528047323227, -0.38683977723121643, -0.4640277624130249, 0.21677166223526, -0.7124244570732117, -0.6386730670928955, -0.1970771700143814, -1.8647289276123047, -0.2129279375076294, 0.1251891702413559, 0.22393977642059326, -0.08809603005647659, -0.08521535992622375], [0.15927836298942566, -0.6973307132720947, 0.5089185833930969, 0.1046936884522438, -0.25131312012672424, -0.6564854383468628, -0.05531006306409836, -4.922327518463135, 0.3698056638240814, -0.755927324295044, -0.14049042761325836, 0.3601515293121338, 0.14051224291324615, -0.02079305797815323, 0.45066654682159424, -1.325189232826233, -0.12883664667606354, 0.23205514252185822, -1.1599901914596558, -0.7994527220726013, -0.15385863184928894, -0.2134740948677063, -0.04068450257182121, -0.9217468500137329, -1.0831776857376099, -0.015754010528326035, -1.5239591598510742, 0.01783781498670578, -0.12087123095989227, -0.06390649080276489, -0.07440472394227982, 0.1369776427745819], [0.3293975293636322, -0.33199331164360046, -0.05604758858680725, 1.0750367641448975, 0.30095309019088745, -0.6610307693481445, 0.4916975200176239, -1.654982328414917, -0.02655772492289543, 0.140525221824646, 0.024118531495332718, -1.9181255102157593, -0.07102188467979431, 0.014101602137088776, -0.06941752135753632, -1.4825537204742432, -0.39342764019966125, 1.09586501121521, -0.11948630958795547, -0.9401036500930786, 0.07514379173517227, -0.03396457061171532, -0.386779248714447, -0.6652392745018005, -0.7747251391410828, -0.5299761891365051, -1.9062575101852417, -0.5107812285423279, -0.29940545558929443, -1.1100678443908691, -0.2916678488254547, 0.2620965242385864], [-0.528423011302948, -0.21320104598999023, -0.43987056612968445, -0.05760614573955536, -0.20411676168441772, -0.3594230115413666, -0.24163606762886047, -0.14319467544555664, -0.022860895842313766, 0.0734303742647171, -0.36840537190437317, -0.09825406223535538, 0.09405998885631561, -0.09772980213165283, -0.303737074136734, 2.021353244781494, 0.11185929924249649, -0.3248729407787323, -1.2103716135025024, 0.18128222227096558, -0.031839244067668915, -0.3906736373901367, 0.13517223298549652, -1.0951205492019653, -0.7383195161819458, 0.3217184245586395, -2.759554862976074, 0.032022349536418915, -0.039517052471637726, 0.18385563790798187, -0.17805571854114532, -0.28560444712638855], [-0.22404664754867554, -1.252071738243103, 0.07764425128698349, -0.088249072432518, 0.10758580267429352, -0.3603602349758148, 0.12029672414064407, 0.4902442693710327, 0.02238163724541664, 0.1899346262216568, 0.13301518559455872, -0.045424915850162506, -0.16449274122714996, -0.05292265862226486, -0.5288175940513611, -1.422734260559082, 0.11864539235830307, -1.7638667821884155, -0.3116987645626068, -1.0582398176193237, -0.6215188503265381, 0.19063980877399445, -0.05677062273025513, -1.2327944040298462, -1.0327506065368652, -0.01270438451319933, -0.7331762313842773, -0.31998375058174133, 0.19753968715667725, 0.7555049657821655, 0.5187178254127502, 0.6086671352386475], [0.08361334353685379, -0.8266774415969849, -0.06384086608886719, -0.07711094617843628, -0.143924742937088, -0.3615826666355133, -0.00973261147737503, -4.696900367736816, -0.11223725974559784, -0.18193557858467102, 0.27216392755508423, 0.020717741921544075, 0.2712372839450836, -0.18573041260242462, -0.08369878679513931, -1.7941091060638428, -0.0441572442650795, -0.30969858169555664, -1.3378443717956543, -0.3931489586830139, -0.5947532057762146, -0.3948213458061218, -0.45575833320617676, -1.2691162824630737, -0.6710913777351379, -0.07651841640472412, -1.9882316589355469, -0.058228567242622375, -0.16732390224933624, -0.0809430181980133, 0.39149466156959534, 0.11394285410642624], [0.07439403980970383, -0.892646312713623, -0.23868340253829956, -0.22186478972434998, -0.2841852903366089, -0.7811279296875, -0.2681671977043152, 0.004323452711105347, -0.4185416102409363, -0.3219609558582306, 0.08069098740816116, -0.09933623671531677, -0.12306831777095795, 0.2565971910953522, -0.6136254668235779, -3.345196008682251, -0.011850371956825256, -4.177102565765381, -3.2990732192993164, -2.3118293285369873, -1.7336208820343018, -0.06132199615240097, -0.3190404176712036, -1.7856520414352417, -3.729271650314331, -0.20453329384326935, -3.668480396270752, 0.14965654909610748, -0.3509768545627594, 0.6711277961730957, -0.20875467360019684, 0.14383092522621155]]}, "MLP/~/linear_2": {"b": [0.1725475788116455], "w": [[0.11001760512590408], [0.14901165664196014], [0.10794974118471146], [-0.08988985419273376], [-0.09763327986001968], [-0.30778223276138306], [-0.3047999143600464], [2.4520978927612305], [-0.1212196946144104], [-0.5602554082870483], [0.022799503058195114], [-0.25932517647743225], [-0.10665427148342133], [-0.17012758553028107], [0.05083883926272392], [2.3765814304351807], [-0.20755204558372498], [0.1401720643043518], [-0.3995649218559265], [3.084139585494995], [0.4845277965068817], [-0.16117116808891296], [0.03739959001541138], [-3.986579656600952], [-0.29536762833595276], [0.28481587767601013], [-7.258893013000488], [-0.029481666162610054], [0.3620825707912445], [0.44282209873199463], [-0.04127616435289383], [0.035834647715091705]]}}